<?xml version="1.0"?>
<opencv_storage>
<cascade>
  <stageType>BOOST</stageType>
  <featureType>LBP</featureType>
  <height>24</height>
  <width>24</width>
  <stageParams>
    <boostType>GAB</boostType>
    <minHitRate>9.9900001287460327e-01</minHitRate>
    <maxFalseAlarm>5.0000000000000000e-01</maxFalseAlarm>
    <weightTrimRate>9.4999999999999996e-01</weightTrimRate>
    <maxDepth>1</maxDepth>
    <maxWeakCount>500</maxWeakCount></stageParams>
  <featureParams>
    <maxCatCount>256</maxCatCount>
    <featSize>1</featSize></featureParams>
  <stageNum>21</stageNum>
  <stages>
    <!-- stage 0 -->
    <_>
      <maxWeakCount>6</maxWeakCount>
      <stageThreshold>-2.2741489410400391e+00</stageThreshold>
      <weakClassifiers>
        <_>
          <internalNodes>
            0 -1 41 -1 -1101 -1 -134499909 -234905409 288559121
            -71323393 322109467</internalNodes>
          <leafValues>
            -8.4813714027404785e-01 6.3104730844497681e-01</leafValues></_>
        <_>
          <internalNodes>
            0 -1 12 -524305 -175909373 -178792374 -83626491 1430470690
            2088980995 1346584578 1917023043</internalNodes>
          <leafValues>
            -6.1682099103927612e-01 4.2033854126930237e-01</leafValues></_>
        <_>
          <internalNodes>
            0 -1 109 -789056814 -234892937 2009034995 -4237313 269726448
            273879255 867660522 872355839</internalNodes>
          <leafValues>
            -5.9107589721679688e-01 3.3360451459884644e-01</leafValues></_>
        <_>
          <internalNodes>
            0 -1 35 -134744065 -11010093 -1043202061 -15204557
            -587139592 -1077352864 -864691505 1074021378</internalNodes>
          <leafValues>
            -4.7726574540138245e-01 3.7599149346351624e-01</leafValues></_>
        <_>
          <internalNodes>
            0 -1 635 -201338752 -775061500 -773852801 1359598341
            -1871731464 1082654856 1363137467 1393279883</internalNodes>
          <leafValues>
            -4.1715124249458313e-01 3.8760361075401306e-01</leafValues></_>
        <_>
          <internalNodes>
            0 -1 5 -13369629 -1249123613 -764948273 -813312233
            1629967127 -1039965631 1896039011 -1069320381</internalNodes>
          <leafValues>
            -3.6085733771324158e-01 4.5655307173728943e-01</leafValues></_></weakClassifiers></_>
    <!-- stage 1 -->
    <_>
      <maxWeakCount>13</maxWeakCount>
      <stageThreshold>-2.1738803386688232e+00</stageThreshold>
      <weakClassifiers>
        <_>
          <internalNodes>
            0 -1 41 -1 -265349 -1 -3653 -234901249 1897074707 -67135233
            1937445051</internalNodes>
          <leafValues>
            -7.0111852884292603e-01 4.5254495739936829e-01</leafValues></_>
        <_>
          <internalNodes>
            0 -1 84 -135268662 -804003838 49152 -1056443833 1073954818
            1342259202 1074221059 1879537495</internalNodes>
          <leafValues>
            -5.9469366073608398e-01 3.0832549929618835e-01</leafValues></_>
        <_>
          <internalNodes>
            0 -1 575 -910165766 -707837702 269431032 1372549887
            -1960081224 655416 468660479 299875323</internalNodes>
          <leafValues>
            -5.0786036252975464e-01 3.1399232149124146e-01</leafValues></_>
        <_>
          <internalNodes>
            0 -1 36 -524289 -549978153 -551944231 -48890031 -129959428
            -2004073472 -656606498 1077956608</internalNodes>
          <leafValues>
            -5.0449472665786743e-01 3.1478330492973328e-01</leafValues></_>
        <_>
          <internalNodes>
            0 -1 3 -9961505 -746849321 -745545761 -616825645 1935892839
            1884770627 1666707695 -1035734493</internalNodes>
          <leafValues>
            -2.6726102828979492e-01 5.1122570037841797e-01</leafValues></_>
        <_>
          <internalNodes>
            0 -1 683 -536872716 -773357568 -760219137 -786712721
            -1158677250 905352 -1828987649 1393281935</internalNodes>
          <leafValues>
            -4.2325910925865173e-01 3.2937592267990112e-01</leafValues></_>
        <_>
          <internalNodes>
            0 -1 125 2069057602 2103136832 577399659 2134064010
            805376000 995311616 471037771 2138273615</internalNodes>
          <leafValues>
            -5.6062686443328857e-01 2.4292843043804169e-01</leafValues></_>
        <_>
          <internalNodes>
            0 -1 361 -539829608 -1113864182 -1660569889 -1122292459
            -378816278 -1078286149 -573857861 -2080243710</internalNodes>
          <leafValues>
            -3.3057650923728943e-01 3.4369143843650818e-01</leafValues></_>
        <_>
          <internalNodes>
            0 -1 97 -753143750 -552206333 1064696048 -715959950
            -2147422016 -1206910975 391237832 2139050495</internalNodes>
          <leafValues>
            -4.4041633605957031e-01 2.5812590122222900e-01</leafValues></_>
        <_>
          <internalNodes>
            0 -1 135 -8993 -676110272 51434 1350750491 1611681862
            471880502 1075986775 -766281865</internalNodes>
          <leafValues>
            -3.2125794887542725e-01 3.1798443198204041e-01</leafValues></_>
        <_>
          <internalNodes>
            0 -1 432 -285 -796921743 1610612191 -776839120 -1069398
            1077903474 -1450193921 45056187</internalNodes>
          <leafValues>
            -4.2777711153030396e-01 2.5517591834068298e-01</leafValues></_>
        <_>
          <internalNodes>
            0 -1 14 2011690999 1058902016 -955923497 1594874899
            1730663111 -1358282713 1397215467 -717012990</internalNodes>
          <leafValues>
            -2.8884521126747131e-01 3.5081139206886292e-01</leafValues></_>
        <_>
          <internalNodes>
            0 -1 775 -537452304 -872796016 -2013588997 1359998997
            -1414817605 117651595 33227002 1363931209</internalNodes>
          <leafValues>
            -3.9257782697677612e-01 2.5134950876235962e-01</leafValues></_></weakClassifiers></_>
    <!-- stage 2 -->
    <_>
      <maxWeakCount>20</maxWeakCount>
      <stageThreshold>-2.1686143875122070e+00</stageThreshold>
      <weakClassifiers>
        <_>
          <internalNodes>
            0 -1 73 -69 -145280237 -67108865 2012951355 -1326472961
            808910995 838799615 1946096639</internalNodes>
          <leafValues>
            -6.3723397254943848e-01 2.7930760383605957e-01</leafValues></_>
        <_>
          <internalNodes>
            0 -1 4 -524293 -2369055 -544219169 -15475569 1734833779
            2004054627 -143163417 -771526141</internalNodes>
          <leafValues>
            -3.5109215974807739e-01 4.4784206151962280e-01</leafValues></_>
        <_>
          <internalNodes>
            0 -1 429 -4466472 -35808807 -782639619 1572821371 -290944260
            -41383778 -936407297 -2147483648</internalNodes>
          <leafValues>
            -3.4657344222068787e-01 3.7124764919281006e-01</leafValues></_>
        <_>
          <internalNodes>
            0 -1 40 -262145 -327854 -134217731 -265872 -100929284
            -804089856 -67121923 1966309538</internalNodes>
          <leafValues>
            -4.8096168041229248e-01 2.6141777634620667e-01</leafValues></_>
        <_>
          <internalNodes>
            0 -1 64 -3407890 -805243706 -1677672320 -384575419
            1980126455 1343340674 1346598643 -166240953</internalNodes>
          <leafValues>
            -3.2340869307518005e-01 3.7448641657829285e-01</leafValues></_>
        <_>
          <internalNodes>
            0 -1 695 -1961887492 -572538660 58393343 1373592831
            -1145243397 17760426 603926779 1409268735</internalNodes>
          <leafValues>
            -4.3500518798828125e-01 2.8442835807800293e-01</leafValues></_>
        <_>
          <internalNodes>
            0 -1 374 -801980336 -673742822 393441305 -754794312
            -933168760 -650076022 50823644 -551563777</internalNodes>
          <leafValues>
            -2.8349912166595459e-01 3.9116740226745605e-01</leafValues></_>
        <_>
          <internalNodes>
            0 -1 908 -143929110 17580160 -771702784 85023940 -1471152214
            1162920176 -493883953 77594591</internalNodes>
          <leafValues>
            -3.8127800822257996e-01 2.4921171367168427e-01</leafValues></_>
        <_>
          <internalNodes>
            0 -1 578 2147483502 795867951 -83889630 1929114607
            -1343234161 1147141967 -134359811 -989855745</internalNodes>
          <leafValues>
            -3.6307173967361450e-01 2.6840865612030029e-01</leafValues></_>
        <_>
          <internalNodes>
            0 -1 171 -877756198 -1645241942 222910803 -552394345
            -1935373061 -5526616 -880859169 -2147287040</internalNodes>
          <leafValues>
            -2.9610493779182434e-01 3.2771006226539612e-01</leafValues></_>
        <_>
          <internalNodes>
            0 -1 157 1430516976 319888704 812728433 1364545537
            1263157830 1600262663 1128485695 2071418695</internalNodes>
          <leafValues>
            -4.8742043972015381e-01 1.9094274938106537e-01</leafValues></_>
        <_>
          <internalNodes>
            0 -1 1 1873542911 -1081092389 -677905445 -268707863
            560424823 1395868487 1399276031 1107509250</internalNodes>
          <leafValues>
            -3.4742671251296997e-01 2.6890829205513000e-01</leafValues></_>
        <_>
          <internalNodes>
            0 -1 671 -69207812 -644120091 -742654593 -753676179
            -1951669578 -744512584 -1826891265 -754220917</internalNodes>
          <leafValues>
            -2.5771814584732056e-01 3.7615245580673218e-01</leafValues></_>
        <_>
          <internalNodes>
            0 -1 29 -30 -2573638 -2108937 -134368258 -2389888 -80071886
            309792856 997917483</internalNodes>
          <leafValues>
            -4.7111663222312927e-01 1.9996780157089233e-01</leafValues></_>
        <_>
          <internalNodes>
            0 -1 503 -3147812 -1118877216 1346486482 -170830704
            -1778975250 -2062535369 -1803289352 -2077007929</internalNodes>
          <leafValues>
            -2.9768016934394836e-01 2.9740869998931885e-01</leafValues></_>
        <_>
          <internalNodes>
            0 -1 115 -69992705 -87603998 -799869857 -1071654185
            1999782503 1661419539 1381200759 -1034422441</internalNodes>
          <leafValues>
            -2.4654908478260040e-01 3.4701588749885559e-01</leafValues></_>
        <_>
          <internalNodes>
            0 -1 550 -1802 1411379201 -855770369 1348850397 -1154288657
            -2113209558 -609485937 453006599</internalNodes>
          <leafValues>
            -3.5708463191986084e-01 2.4127465486526489e-01</leafValues></_>
        <_>
          <internalNodes>
            0 -1 8 -5506053 799791299 -1564879949 530020659 107442935
            527660839 657650175 16973824</internalNodes>
          <leafValues>
            -3.5058245062828064e-01 2.3330757021903992e-01</leafValues></_>
        <_>
          <internalNodes>
            0 -1 823 -1349817001 -283673729 -20971535 -227289091
            -1881944234 1195376237 -1627663915 -4522500</internalNodes>
          <leafValues>
            -2.1860828995704651e-01 3.9167058467864990e-01</leafValues></_>
        <_>
          <internalNodes>
            0 -1 493 -1964843786 -605089626 124989715 393937075
            -1409775197 1294147855 30644394 456907519</internalNodes>
          <leafValues>
            -3.6702224612236023e-01 2.1680007874965668e-01</leafValues></_></weakClassifiers></_>
    <!-- stage 3 -->
    <_>
      <maxWeakCount>25</maxWeakCount>
      <stageThreshold>-2.1126978397369385e+00</stageThreshold>
      <weakClassifiers>
        <_>
          <internalNodes>
            0 -1 302 -1 -235162957 -67174401 867315771 -34625282 3375282
            -269488641 45809851</internalNodes>
          <leafValues>
            -6.6222763061523438e-01 1.5768551826477051e-01</leafValues></_>
        <_>
          <internalNodes>
            0 -1 54 -9438518 -201066361 1095680128 -788276157 1464301415
            1145262147 1347896003 -145262777</internalNodes>
          <leafValues>
            -3.9807677268981934e-01 3.3794498443603516e-01</leafValues></_>
        <_>
          <internalNodes>
            0 -1 35 -524297 -10488873 -547881473 -581435629 -581632516
            -8476 -598352689 1074087426</internalNodes>
          <leafValues>
            -3.8362970948219299e-01 2.7373832464218140e-01</leafValues></_>
        <_>
          <internalNodes>
            0 -1 648 -242 2139094911 -201854464 1945893887 -805314746
            1197473631 -134228224 -167772161</internalNodes>
          <leafValues>
            -3.2722225785255432e-01 3.3998161554336548e-01</leafValues></_>
        <_>
          <internalNodes>
            0 -1 142 -534785 -2141617 1502866623 -92315649 1968521414
            2144288870 1935103743 -2049</internalNodes>
          <leafValues>
            -2.2162544727325439e-01 4.7651550173759460e-01</leafValues></_>
        <_>
          <internalNodes>
            0 -1 577 -1979715334 -711258998 321589400 1442513139
            -1951686214 220921902 1026504958 532626367</internalNodes>
          <leafValues>
            -4.2223030328750610e-01 2.3069858551025391e-01</leafValues></_>
        <_>
          <internalNodes>
            0 -1 2 -78907393 -249823529 -152307201 -142609443 2003268599
            -228080285 -1019742209 -1039941533</internalNodes>
          <leafValues>
            -2.2369946539402008e-01 4.3737015128135681e-01</leafValues></_>
        <_>
          <internalNodes>
            0 -1 33 -97 -8405213 -1804 -134499911 -1247629168 -181260030
            871567612 926094098</internalNodes>
          <leafValues>
            -5.8135539293289185e-01 1.4506046473979950e-01</leafValues></_>
        <_>
          <internalNodes>
            0 -1 520 -72822488 -545402563 -2083565057 1426915741
            -499593000 -1641504615 184779231 -552615681</internalNodes>
          <leafValues>
            -2.4870571494102478e-01 3.6569851636886597e-01</leafValues></_>
        <_>
          <internalNodes>
            0 -1 0 -1344536577 -1346641953 -570429005 -10945 1730639863
            1330075463 65497079 196608</internalNodes>
          <leafValues>
            -3.5325303673744202e-01 2.2791850566864014e-01</leafValues></_>
        <_>
          <internalNodes>
            0 -1 571 -572981764 -134523676 -1780390991 2000838958
            -1716847384 16944395 28038649 -537928769</internalNodes>
          <leafValues>
            -2.5826224684715271e-01 3.2858964800834656e-01</leafValues></_>
        <_>
          <internalNodes>
            0 -1 196 -482676598 -2849152 1601246506 2143443936
            1141958863 -117301213 67220447 -16579169</internalNodes>
          <leafValues>
            -2.8751578927040100e-01 2.8675109148025513e-01</leafValues></_>
        <_>
          <internalNodes>
            0 -1 628 -545541863 -6565345 -1613398049 524244957 -72365942
            -1145402999 -1145054261 -2147287040</internalNodes>
          <leafValues>
            -2.2022499144077301e-01 3.4243974089622498e-01</leafValues></_>
        <_>
          <internalNodes>
            0 -1 131 -1277472010 -75804442 869757546 -201621505
            -1571315134 -1553837502 930346962 2138534399</internalNodes>
          <leafValues>
            -4.0419182181358337e-01 1.9733472168445587e-01</leafValues></_>
        <_>
          <internalNodes>
            0 -1 750 -1575668 -278921441 -353443252 1927512063
            -2046837234 1332739967 -188750588 -151322913</internalNodes>
          <leafValues>
            -3.1184837222099304e-01 2.4646100401878357e-01</leafValues></_>
        <_>
          <internalNodes>
            0 -1 121 -87068470 1073955552 1073741958 1077985746
            1648377954 1343243776 1414751862 1108832887</internalNodes>
          <leafValues>
            -4.7343960404396057e-01 1.6637645661830902e-01</leafValues></_>
        <_>
          <internalNodes>
            0 -1 669 -1602184112 -9740427 -4264451 -33956481 -1372590161
            -1 -805569025 -1959131087</internalNodes>
          <leafValues>
            -3.5149618983268738e-01 2.1044814586639404e-01</leafValues></_>
        <_>
          <internalNodes>
            0 -1 717 2074082264 699134850 21565617 298840563 265825022
            260394671 687722747 232782591</internalNodes>
          <leafValues>
            -3.3808046579360962e-01 2.2930261492729187e-01</leafValues></_>
        <_>
          <internalNodes>
            0 -1 330 -772015426 1396068370 -546181381 1410355452
            -2137462532 -1872625623 296849657 465541631</internalNodes>
          <leafValues>
            -3.4295022487640381e-01 2.1245990693569183e-01</leafValues></_>
        <_>
          <internalNodes>
            0 -1 865 -638068533 1434127430 1433358523 1364851801
            -61640181 -895562674 -301998497 -2146897778</internalNodes>
          <leafValues>
            -2.6657974720001221e-01 2.9018288850784302e-01</leafValues></_>
        <_>
          <internalNodes>
            0 -1 518 -723652116 1077997664 -926287111 1346654677
            834659012 308723908 -1963917633 185204867</internalNodes>
          <leafValues>
            -4.4972774386405945e-01 1.4543943107128143e-01</leafValues></_>
        <_>
          <internalNodes>
            0 -1 15 938997747 -1244136736 -20720197 -544083645
            1202058739 -4983659 1205035423 -984264365</internalNodes>
          <leafValues>
            -2.3047155141830444e-01 3.0607035756111145e-01</leafValues></_>
        <_>
          <internalNodes>
            0 -1 425 466231448 998449251 956842491 522128337 -1626826326
            -1886676439 152161721 65536</internalNodes>
          <leafValues>
            -3.7885668873786926e-01 1.8255889415740967e-01</leafValues></_>
        <_>
          <internalNodes>
            0 -1 712 -1615069234 1869578095 2078211840 1400110929
            -1073752817 1175449423 -704653388 -780215044</internalNodes>
          <leafValues>
            -2.9440537095069885e-01 2.4635329842567444e-01</leafValues></_>
        <_>
          <internalNodes>
            0 -1 903 -666382334 1575310371 542156235 957468691
            -589309870 1768839915 -859186849 -2144076297</internalNodes>
          <leafValues>
            -2.3811371624469757e-01 2.9717808961868286e-01</leafValues></_></weakClassifiers></_>
    <!-- stage 4 -->
    <_>
      <maxWeakCount>28</maxWeakCount>
      <stageThreshold>-2.0159158706665039e+00</stageThreshold>
      <weakClassifiers>
        <_>
          <internalNodes>
            0 -1 85 -257 -103023461 -773132134 -3155217 1952674342
            1883402343 2002220519 -565385</internalNodes>
          <leafValues>
            -3.4236544370651245e-01 3.6967757344245911e-01</leafValues></_>
        <_>
          <internalNodes>
            0 -1 90 -16833776 1930900241 2143239167 2146924543 13611772
            276238579 872378623 2013221887</internalNodes>
          <leafValues>
            -5.6852817535400391e-01 1.7405524849891663e-01</leafValues></_>
        <_>
          <internalNodes>
            0 -1 5 -640680213 -1340344145 -405815089 -861279033
            1899493239 -534285497 -230202673 -1073250813</internalNodes>
          <leafValues>
            -2.7995762228965759e-01 3.2701581716537476e-01</leafValues></_>
        <_>
          <internalNodes>
            0 -1 531 -34537988 -684566040 50340116 386924544 -1112867395
            -687690385 16849320 -263169</internalNodes>
          <leafValues>
            -2.5114792585372925e-01 3.6334973573684692e-01</leafValues></_>
        <_>
          <internalNodes>
            0 -1 234 -1081935105 -1626619640 -1660290563 1594032465
            -1643188993 -7632737 1325922047 -2013200382</internalNodes>
          <leafValues>
            -2.6192176342010498e-01 3.4863895177841187e-01</leafValues></_>
        <_>
          <internalNodes>
            0 -1 630 -1794 -643184404 -270795781 -785862164 -18434
            -760438616 -537919489 1393213448</internalNodes>
          <leafValues>
            -4.1781103610992432e-01 2.1318610012531281e-01</leafValues></_>
        <_>
          <internalNodes>
            0 -1 68 -168037422 -1143803730 -134218917 -244100233
            856748800 320901152 275895246 1865355743</internalNodes>
          <leafValues>
            -3.7439537048339844e-01 2.1175470948219299e-01</leafValues></_>
        <_>
          <internalNodes>
            0 -1 900 -695209790 -1849429344 -1073495982 72210563
            -588784437 -775036470 -691863845 -2134639105</internalNodes>
          <leafValues>
            -3.0075010657310486e-01 2.6765513420104980e-01</leafValues></_>
        <_>
          <internalNodes>
            0 -1 10 2138570751 -11011390 1751369427 -1895571135
            1913122995 -821563325 -410520337 -918465534</internalNodes>
          <leafValues>
            -2.3084899783134460e-01 3.3348184823989868e-01</leafValues></_>
        <_>
          <internalNodes>
            0 -1 610 -1885357830 -978386772 34810042 1427049131
            -1154827783 154075304 868169963 1543486395</internalNodes>
          <leafValues>
            -3.6696955561637878e-01 2.0091532170772552e-01</leafValues></_>
        <_>
          <internalNodes>
            0 -1 653 -1343389825 -291865219 -184549645 -218468483
            -1107304865 -813703329 -1766132491 -4530692</internalNodes>
          <leafValues>
            -2.0445793867111206e-01 3.6229535937309265e-01</leafValues></_>
        <_>
          <internalNodes>
            0 -1 392 2106106265 -576748833 1130044253 -1659513505
            -73486853 -4396581 -1145611521 -2147352576</internalNodes>
          <leafValues>
            -2.2688107192516327e-01 3.1574469804763794e-01</leafValues></_>
        <_>
          <internalNodes>
            0 -1 817 -620250626 -1049890592 -2014495110 1087369675
            -1149370881 229224687 997918974 1090246751</internalNodes>
          <leafValues>
            -3.2478290796279907e-01 2.1592438220977783e-01</leafValues></_>
        <_>
          <internalNodes>
            0 -1 155 2004344063 2138928467 2128603375 -2918965
            1395933390 2139046231 2121877071 -8683585</internalNodes>
          <leafValues>
            -2.2243192791938782e-01 3.2979184389114380e-01</leafValues></_>
        <_>
          <internalNodes>
            0 -1 356 -69666568 490702992 1568940635 456851995 1520978666
            1604038364 503985387 -1091618369</internalNodes>
          <leafValues>
            -2.0169305801391602e-01 3.2513022422790527e-01</leafValues></_>
        <_>
          <internalNodes>
            0 -1 149 -134228225 -585416632 -1029549934 1073889418
            1413627974 1375944710 34828543 1142126167</internalNodes>
          <leafValues>
            -3.4637394547462463e-01 1.9496402144432068e-01</leafValues></_>
        <_>
          <internalNodes>
            0 -1 631 -2046801600 -11174059 -15729153 -22317699
            -1346437185 -281543681 -675457537 -1908796043</internalNodes>
          <leafValues>
            -3.2161113619804382e-01 2.2697471082210541e-01</leafValues></_>
        <_>
          <internalNodes>
            0 -1 757 -1342349955 -270314175 -570425350 -88178691
            -1482694825 -411041921 -1795574284 -352771</internalNodes>
          <leafValues>
            -2.0715166628360748e-01 3.2505968213081360e-01</leafValues></_>
        <_>
          <internalNodes>
            0 -1 340 -1733146534 -44084670 557331000 526057593
            -1893025238 1064900864 861061039 1071876335</internalNodes>
          <leafValues>
            -3.5489711165428162e-01 1.9114154577255249e-01</leafValues></_>
        <_>
          <internalNodes>
            0 -1 61 -282330389 671867787 1200604279 -2113945105
            906188535 1126389603 1107515343 1079244247</internalNodes>
          <leafValues>
            -2.5439959764480591e-01 2.4905022978782654e-01</leafValues></_>
        <_>
          <internalNodes>
            0 -1 799 -539238951 -48262757 1582421439 425448699
            -1081429878 -544252705 -1097081953 -2013052918</internalNodes>
          <leafValues>
            -2.0254582166671753e-01 3.3734470605850220e-01</leafValues></_>
        <_>
          <internalNodes>
            0 -1 789 -295154 1879006575 -493885888 -218890501 -536879281
            1333788493 -134228988 -134218754</internalNodes>
          <leafValues>
            -2.7146130800247192e-01 2.5536754727363586e-01</leafValues></_>
        <_>
          <internalNodes>
            0 -1 432 -16777281 -654645216 1862204927 -223152080
            -269505820 -1070626064 -1448097283 11470907</internalNodes>
          <leafValues>
            -4.5882797241210938e-01 1.4508487284183502e-01</leafValues></_>
        <_>
          <internalNodes>
            0 -1 560 -1853435636 -720400118 60477918 1426969439
            -1207370628 -938703347 -2041540355 -1625585015</internalNodes>
          <leafValues>
            -2.6520141959190369e-01 2.5371736288070679e-01</leafValues></_>
        <_>
          <internalNodes>
            0 -1 14 2012476403 521658946 -2029663785 -1624519401
            1845842835 -74189994 1430643579 -1052295166</internalNodes>
          <leafValues>
            -2.4604077637195587e-01 2.5558403134346008e-01</leafValues></_>
        <_>
          <internalNodes>
            0 -1 137 -1296076038 -1875832709 -1166026546 331185087
            -1251757246 -1555890109 947386304 993490943</internalNodes>
          <leafValues>
            -3.6254018545150757e-01 1.7382413148880005e-01</leafValues></_>
        <_>
          <internalNodes>
            0 -1 866 -35655221 -40637401 2136440171 420043335 -1605949
            -1059553 -118489553 -2145648993</internalNodes>
          <leafValues>
            -1.8847808241844177e-01 3.3689799904823303e-01</leafValues></_>
        <_>
          <internalNodes>
            0 -1 130 -1 2130671212 1124266575 1677939547 1986417894
            2085962055 1409314239 -835191977</internalNodes>
          <leafValues>
            -1.8327659368515015e-01 3.4154284000396729e-01</leafValues></_></weakClassifiers></_>
    <!-- stage 5 -->
    <_>
      <maxWeakCount>33</maxWeakCount>
      <stageThreshold>-2.1435785293579102e+00</stageThreshold>
      <weakClassifiers>
        <_>
          <internalNodes>
            0 -1 66 -1 -2097457 -934547301 -16252985 2098417891
            2135127783 1564694527 1935144823</internalNodes>
          <leafValues>
            -3.6269715428352356e-01 2.7733463048934937e-01</leafValues></_>
        <_>
          <internalNodes>
            0 -1 39 -1 -65542 -134479873 -262178 -2823 -1322061584
            -201326593 1907610098</internalNodes>
          <leafValues>
            -3.8998818397521973e-01 2.3286470770835876e-01</leafValues></_>
        <_>
          <internalNodes>
            0 -1 114 -801936846 -552140545 -93062406 -8421377
            -1575750944 -82640895 862189800 2134332415</internalNodes>
          <leafValues>
            -3.8966780900955200e-01 2.0739707350730896e-01</leafValues></_>
        <_>
          <internalNodes>
            0 -1 1 -262145 -545267761 -470548513 1509946829 1165457399
            1998812003 1647833599 212994</internalNodes>
          <leafValues>
            -2.9876396059989929e-01 2.7334138751029968e-01</leafValues></_>
        <_>
          <internalNodes>
            0 -1 867 -5242902 263136488 -178391353 9270381 -589300529
            1052708447 -150995761 16471247</internalNodes>
          <leafValues>
            -4.1665193438529968e-01 1.7563261091709137e-01</leafValues></_>
        <_>
          <internalNodes>
            0 -1 24 -1642509 -1084803210 -6048973 -76072557 2138568703
            -297481 2138564607 -150798334</internalNodes>
          <leafValues>
            -1.9306921958923340e-01 3.7175098061561584e-01</leafValues></_>
        <_>
          <internalNodes>
            0 -1 407 -114 -277905617 -84936990 -210010129 268398415
            1330511695 -134220331 -155533313</internalNodes>
          <leafValues>
            -3.1955751776695251e-01 2.2541047632694244e-01</leafValues></_>
        <_>
          <internalNodes>
            0 -1 737 -623122192 -608443323 -2051026433 -784598209
            -1811939334 -1953808438 53152191 -754193605</internalNodes>
          <leafValues>
            -2.2025769948959351e-01 3.2516956329345703e-01</leafValues></_>
        <_>
          <internalNodes>
            0 -1 390 -331342 -118740 1459312095 -142474248 -621113187
            -83165173 -2134058552 1124827803</internalNodes>
          <leafValues>
            -3.6698958277702332e-01 1.8224188685417175e-01</leafValues></_>
        <_>
          <internalNodes>
            0 -1 8 801370867 187422179 596448755 597381631 1114797815
            187900195 1395880703 33751042</internalNodes>
          <leafValues>
            -3.4583714604377747e-01 2.0931720733642578e-01</leafValues></_>
        <_>
          <internalNodes>
            0 -1 238 -67487062 -2217812 -153324065 -69414450 -579796854
            -76898134 2000785536 17465548</internalNodes>
          <leafValues>
            -4.1520455479621887e-01 1.7019310593605042e-01</leafValues></_>
        <_>
          <internalNodes>
            0 -1 754 -1393009156 -1073971852 -1245188 -1141350948
            -1363517956 -67272707 735599993 -1078452740</internalNodes>
          <leafValues>
            -3.9188703894615173e-01 1.4786145091056824e-01</leafValues></_>
        <_>
          <internalNodes>
            0 -1 147 -68685110 -94875648 1073891530 1077956615
            1644314690 1879130370 1073901639 1077036663</internalNodes>
          <leafValues>
            -4.3931901454925537e-01 1.6921792924404144e-01</leafValues></_>
        <_>
          <internalNodes>
            0 -1 733 -780406768 1400885589 -83896065 -788571905
            -2131824512 1138726303 -2116822529 -217337969</internalNodes>
          <leafValues>
            -2.5591349601745605e-01 2.5443291664123535e-01</leafValues></_>
        <_>
          <internalNodes>
            0 -1 830 1571281912 50447792 34687416 26071105 61472255
            254041525 535795965 201326063</internalNodes>
          <leafValues>
            -3.2298713922500610e-01 2.1685338020324707e-01</leafValues></_>
        <_>
          <internalNodes>
            0 -1 592 354451664 1595507136 1394424665 1561658677
            714778762 -1145460518 1258933439 0</internalNodes>
          <leafValues>
            -4.1505879163742065e-01 1.4263865351676941e-01</leafValues></_>
        <_>
          <internalNodes>
            0 -1 705 -1073905793 -403734627 -201326609 -225018369
            -1074004387 -805306753 -1226918667 -344580</internalNodes>
          <leafValues>
            -1.7242459952831268e-01 3.8752239942550659e-01</leafValues></_>
        <_>
          <internalNodes>
            0 -1 144 860976498 972249851 2006676083 2012443499
            1027755778 -1088208373 1968658511 2138535759</internalNodes>
          <leafValues>
            -3.8279819488525391e-01 1.6905966401100159e-01</leafValues></_>
        <_>
          <internalNodes>
            0 -1 51 -355470613 -659820407 -1040125325 8602645 1986229751
            -81268153 1115126783 -2141751977</internalNodes>
          <leafValues>
            -2.2598378360271454e-01 2.7915528416633606e-01</leafValues></_>
        <_>
          <internalNodes>
            0 -1 787 -1348894881 -279224961 -75632905 -222659849
            -1610875289 -947929217 -1224804873 -352771</internalNodes>
          <leafValues>
            -1.8202815949916840e-01 3.4254816174507141e-01</leafValues></_>
        <_>
          <internalNodes>
            0 -1 55 -1069093750 1140905092 -2080342016 50504 1179808999
            1547720646 1438742406 1073763703</internalNodes>
          <leafValues>
            -4.1909992694854736e-01 1.4752100408077240e-01</leafValues></_>
        <_>
          <internalNodes>
            0 -1 556 -273945552 -813766552 195033663 1932517946
            -2080405322 1091185322 63930875 2073021438</internalNodes>
          <leafValues>
            -3.1065514683723450e-01 1.8890291452407837e-01</leafValues></_>
        <_>
          <internalNodes>
            0 -1 166 -1931022087 722141640 -2147163945 486875607
            -628231681 -339327526 1128527327 -1006567422</internalNodes>
          <leafValues>
            -2.2848100960254669e-01 2.6280018687248230e-01</leafValues></_>
        <_>
          <internalNodes>
            0 -1 753 -1379984001 -268731037 -134223893 -218704623
            -1346437281 -9470147 -806430729 -352775</internalNodes>
          <leafValues>
            -1.7206060886383057e-01 3.5769224166870117e-01</leafValues></_>
        <_>
          <internalNodes>
            0 -1 386 2140983550 1062436952 -2007971617 521339384
            451566334 1539188746 404371679 -1103551825</internalNodes>
          <leafValues>
            -2.1718314290046692e-01 2.8154185414314270e-01</leafValues></_>
        <_>
          <internalNodes>
            0 -1 739 -1958281104 -353753916 127861886 1078659160
            -1549095941 120203866 134152826 1350506682</internalNodes>
          <leafValues>
            -4.6827051043510437e-01 1.2843880057334900e-01</leafValues></_>
        <_>
          <internalNodes>
            0 -1 207 -84739842 -547725394 -2039799157 -787781 1213056590
            -62111731 813938159 -545798657</internalNodes>
          <leafValues>
            -2.2273772954940796e-01 2.6789933443069458e-01</leafValues></_>
        <_>
          <internalNodes>
            0 -1 398 -218107224 1626534705 -784859649 1884320699
            13862723 -1158033214 1375329019 465049981</internalNodes>
          <leafValues>
            -2.9679083824157715e-01 2.0622476935386658e-01</leafValues></_>
        <_>
          <internalNodes>
            0 -1 899 -682896309 -775202737 1628328019 -787098213
            1410222090 1486865408 -670961553 -2146175009</internalNodes>
          <leafValues>
            -2.0293906331062317e-01 2.9533678293228149e-01</leafValues></_>
        <_>
          <internalNodes>
            0 -1 302 -84951749 -92556685 -88145923 -226873288 -454382345
            1077396594 -1160777731 36896826</internalNodes>
          <leafValues>
            -5.0308668613433838e-01 1.2476441264152527e-01</leafValues></_>
        <_>
          <internalNodes>
            0 -1 98 -136054550 -221558078 1074021060 -524757809
            1646412887 4325382 541552999 1145553511</internalNodes>
          <leafValues>
            -3.8264778256416321e-01 1.5506592392921448e-01</leafValues></_>
        <_>
          <internalNodes>
            0 -1 619 1066360814 -277906100 -28312768 1933191152
            -1478499586 225443678 -1526861676 -222766115</internalNodes>
          <leafValues>
            -2.7345854043960571e-01 2.2991219162940979e-01</leafValues></_>
        <_>
          <internalNodes>
            0 -1 722 -1082019432 -6872753 1467766783 1406619811
            -833966968 -1100083465 1481243103 134217728</internalNodes>
          <leafValues>
            -3.4874352812767029e-01 1.6976654529571533e-01</leafValues></_></weakClassifiers></_>
    <!-- stage 6 -->
    <_>
      <maxWeakCount>34</maxWeakCount>
      <stageThreshold>-1.9567449092864990e+00</stageThreshold>
      <weakClassifiers>
        <_>
          <internalNodes>
            0 -1 3 -2097153 -67110177 -42468385 -14683697 2003301239
            -76025321 -210240529 -754720253</internalNodes>
          <leafValues>
            -2.7242204546928406e-01 3.3978301286697388e-01</leafValues></_>
        <_>
          <internalNodes>
            0 -1 41 -1 -2097901 -2105859 -135004743 -34100995 1899171859
            -1108365059 858980507</internalNodes>
          <leafValues>
            -5.6839847564697266e-01 1.4127884805202484e-01</leafValues></_>
        <_>
          <internalNodes>
            0 -1 720 1025006072 -1079050112 352342513 525406673
            529017082 -1952511814 487201023 -1690367814</internalNodes>
          <leafValues>
            -2.8675076365470886e-01 2.7078649401664734e-01</leafValues></_>
        <_>
          <internalNodes>
            0 -1 197 1377488906 -687030036 -248309198 1461328056
            -2089750068 -1189575520 287363580 1027277311</internalNodes>
          <leafValues>
            -3.9102587103843689e-01 2.1593403816223145e-01</leafValues></_>
        <_>
          <internalNodes>
            0 -1 152 -274210 -111984510 1359003866 1342263323 1912619234
            1392656386 1073894095 1377006407</internalNodes>
          <leafValues>
            -3.8005077838897705e-01 1.8066269159317017e-01</leafValues></_>
        <_>
          <internalNodes>
            0 -1 388 -1686071080 -1626521408 486594557 1599410513
            -1400592129 -1081104194 1678595839 -2147418112</internalNodes>
          <leafValues>
            -2.8471964597702026e-01 2.5662305951118469e-01</leafValues></_>
        <_>
          <internalNodes>
            0 -1 371 -541067726 -682172616 -537921665 1996550944
            -1058688952 -80557069 -1041430020 -1062145</internalNodes>
          <leafValues>
            -2.2474713623523712e-01 3.4445849061012268e-01</leafValues></_>
        <_>
          <internalNodes>
            0 -1 863 -70004520 1058754577 272715871 286458139 -611648886
            -1743847285 -1710572801 196618</internalNodes>
          <leafValues>
            -3.0526757240295410e-01 2.1330772340297699e-01</leafValues></_>
        <_>
          <internalNodes>
            0 -1 785 -1073776882 1870659375 -286267904 1920200447
            -33554680 1330641239 -168823680 -788856833</internalNodes>
          <leafValues>
            -3.1792390346527100e-01 2.0822565257549286e-01</leafValues></_>
        <_>
          <internalNodes>
            0 -1 106 -1282 -828650848 -259599206 -871762214 1665562038
            1330665026 1467243506 -871211177</internalNodes>
          <leafValues>
            -2.8159734606742859e-01 2.2443956136703491e-01</leafValues></_>
        <_>
          <internalNodes>
            0 -1 709 1223126264 1166920936 587026680 1086675683
            -1141117448 -2121289462 -1660962561 299891707</internalNodes>
          <leafValues>
            -3.6020076274871826e-01 1.8110090494155884e-01</leafValues></_>
        <_>
          <internalNodes>
            0 -1 591 453087384 -1089781629 -1862155877 488493493
            -1886745878 -1693810518 419535099 134217728</internalNodes>
          <leafValues>
            -4.0033000707626343e-01 1.3148459792137146e-01</leafValues></_>
        <_>
          <internalNodes>
            0 -1 118 823357778 931090938 871185018 2080062459
            -1342113789 -1099800558 927069815 2134071295</internalNodes>
          <leafValues>
            -3.9477187395095825e-01 1.5394051373004913e-01</leafValues></_>
        <_>
          <internalNodes>
            0 -1 9 2079052795 -1689808239 1594087091 22008513 54780663
            -1893211865 1124585711 1208188930</internalNodes>
          <leafValues>
            -2.7967593073844910e-01 2.0843338966369629e-01</leafValues></_>
        <_>
          <internalNodes>
            0 -1 636 -1817907008 -674380713 -786507698 1380796639
            -2083606398 1397720711 1140052127 -618985153</internalNodes>
          <leafValues>
            -2.4595959484577179e-01 2.4879340827465057e-01</leafValues></_>
        <_>
          <internalNodes>
            0 -1 925 -538971686 394629328 1636037968 352711129
            -1110706744 34652672 -1047923201 -1897925121</internalNodes>
          <leafValues>
            -2.1466448903083801e-01 2.8270590305328369e-01</leafValues></_>
        <_>
          <internalNodes>
            0 -1 457 667881358 -1351647378 469490304 -224133213
            100622095 92225355 -1778387518 -205865731</internalNodes>
          <leafValues>
            -3.0411416292190552e-01 1.9302099943161011e-01</leafValues></_>
        <_>
          <internalNodes>
            0 -1 609 -1994367748 -176485238 100082730 390792218
            -1431111432 86117693 54522090 531626747</internalNodes>
          <leafValues>
            -3.8524374365806580e-01 1.4833220839500427e-01</leafValues></_>
        <_>
          <internalNodes>
            0 -1 0 728760319 264853957 -1863078917 1868518367 6514423
            355927814 3397567 212994</internalNodes>
          <leafValues>
            -3.3093506097793579e-01 1.7739613354206085e-01</leafValues></_>
        <_>
          <internalNodes>
            0 -1 37 -2622535 -604177421 -17235969 -2818223 -302734540
            -1604263392 -319362050 1660948788</internalNodes>
          <leafValues>
            -4.1864556074142456e-01 1.2626507878303528e-01</leafValues></_>
        <_>
          <internalNodes>
            0 -1 339 -5089026 -541565578 -1657767201 1059726175
            -895972102 -615555201 -1835883521 -1361867521</internalNodes>
          <leafValues>
            -2.1227762103080750e-01 2.7795428037643433e-01</leafValues></_>
        <_>
          <internalNodes>
            0 -1 232 -3998500 935052567 741131417 529996381 1846169339
            536852543 1527525003 1018132503</internalNodes>
          <leafValues>
            -2.5795567035675049e-01 2.3020479083061218e-01</leafValues></_>
        <_>
          <internalNodes>
            0 -1 564 -637799772 1078841640 -1543548170 1348245487
            -1828784456 1687945 -1280077569 287525831</internalNodes>
          <leafValues>
            -4.2441028356552124e-01 1.2992978096008301e-01</leafValues></_>
        <_>
          <internalNodes>
            0 -1 905 -246023486 -1280716466 -794953636 -1089375011
            1657130445 1735214662 -196747304 14934007</internalNodes>
          <leafValues>
            -2.8061246871948242e-01 1.9442322850227356e-01</leafValues></_>
        <_>
          <internalNodes>
            0 -1 396 -417141590 319526432 -484977941 1380701431
            254733999 1983623055 1168077303 -272968195</internalNodes>
          <leafValues>
            -2.1653892099857330e-01 2.6327428221702576e-01</leafValues></_>
        <_>
          <internalNodes>
            0 -1 86 -1841302598 -537202130 -1076399151 -237289480
            1903415626 -1200474715 553710548 2139050495</internalNodes>
          <leafValues>
            -3.2478100061416626e-01 1.6842021048069000e-01</leafValues></_>
        <_>
          <internalNodes>
            0 -1 77 -78908693 -1977881866 1077641438 1246481870
            1914140407 1343484611 1380809471 -665327753</internalNodes>
          <leafValues>
            -1.9034415483474731e-01 2.8559124469757080e-01</leafValues></_>
        <_>
          <internalNodes>
            0 -1 784 -1074193027 -276883671 -67503134 -226542084
            -1209076377 -819200397 -1746996251 -4547332</internalNodes>
          <leafValues>
            -1.8429873883724213e-01 3.0477705597877502e-01</leafValues></_>
        <_>
          <internalNodes>
            0 -1 666 -4194817 1604300827 1271649119 198014975 -538970390
            -8531991 -553652405 -2010003454</internalNodes>
          <leafValues>
            -1.8498602509498596e-01 2.9798814654350281e-01</leafValues></_>
        <_>
          <internalNodes>
            0 -1 141 -33555713 -621818770 53791 1174660715 1463961158
            2053862470 1074811759 -732473529</internalNodes>
          <leafValues>
            -2.5151094794273376e-01 2.1295605599880219e-01</leafValues></_>
        <_>
          <internalNodes>
            0 -1 499 -1734719236 -143045554 386020129 389613626
            -1187333062 121769514 125245694 1068743167</internalNodes>
          <leafValues>
            -3.4841412305831909e-01 1.5539073944091797e-01</leafValues></_>
        <_>
          <internalNodes>
            0 -1 13 1428903669 252413030 -2129920585 721895733
            1728266995 -16317181 1296528895 1224933378</internalNodes>
          <leafValues>
            -2.6702421903610229e-01 2.0553769171237946e-01</leafValues></_>
        <_>
          <internalNodes>
            0 -1 751 -1363600040 -291012829 -759179018 1914978625
            -1347639515 -888422563 297333235 -4552452</internalNodes>
          <leafValues>
            -2.4649371206760406e-01 2.2672055661678314e-01</leafValues></_>
        <_>
          <internalNodes>
            0 -1 229 -23411976 -1080533752 1077936349 1482752123
            463093770 -351647680 470307035 -1925117863</internalNodes>
          <leafValues>
            -2.5638347864151001e-01 2.0609198510646820e-01</leafValues></_></weakClassifiers></_>
    <!-- stage 7 -->
    <_>
      <maxWeakCount>32</maxWeakCount>
      <stageThreshold>-2.0366036891937256e+00</stageThreshold>
      <weakClassifiers>
        <_>
          <internalNodes>
            0 -1 795 486592760 -1618411392 285299153 1566380121
            998815930 -1416920920 151165179 -1684340584</internalNodes>
          <leafValues>
            -3.4036818146705627e-01 2.9082584381103516e-01</leafValues></_>
        <_>
          <internalNodes>
            0 -1 120 -2098454 -204479798 1342193678 1397216071
            1933733986 1107509248 1393030983 -682100873</internalNodes>
          <leafValues>
            -3.4959694743156433e-01 2.8047287464141846e-01</leafValues></_>
        <_>
          <internalNodes>
            0 -1 296 -1794576168 -7501696 352351709 1595883989
            -2012562693 -1078296390 -1962546689 -1694302206</internalNodes>
          <leafValues>
            -2.4926248192787170e-01 3.2642069458961487e-01</leafValues></_>
        <_>
          <internalNodes>
            0 -1 916 -2109238 -1211117568 -2147336064 5230663 -632622974
            67817474 -770969393 -1038352385</internalNodes>
          <leafValues>
            -2.6034697890281677e-01 2.9515221714973450e-01</leafValues></_>
        <_>
          <internalNodes>
            0 -1 240 -18510 -12931278 -136334274 -1221979334 -2125644
            991639435 -83912520 54461098</internalNodes>
          <leafValues>
            -4.5243084430694580e-01 1.9518959522247314e-01</leafValues></_>
        <_>
          <internalNodes>
            0 -1 2 -1048577 -28311863 2061605625 -2058358071 1917314039
            1124295239 1197991663 -1035484542</internalNodes>
          <leafValues>
            -2.5531673431396484e-01 2.8599742054939270e-01</leafValues></_>
        <_>
          <internalNodes>
            0 -1 355 -586133250 -615153640 1073742047 1527972063
            -134215542 -83230664 698623 -1693773637</internalNodes>
          <leafValues>
            -2.0601716637611389e-01 3.2329419255256653e-01</leafValues></_>
        <_>
          <internalNodes>
            0 -1 930 -207884054 16891904 16891904 285692353 -1794121590
            524288 285331594 1394327755</internalNodes>
          <leafValues>
            -2.9276546835899353e-01 2.1615040302276611e-01</leafValues></_>
        <_>
          <internalNodes>
            0 -1 744 -1415573504 -278199992 -766782784 -229239171
            -1433736698 -1019651482 -1822247181 -80078343</internalNodes>
          <leafValues>
            -2.9833403229713440e-01 2.1860319375991821e-01</leafValues></_>
        <_>
          <internalNodes>
            0 -1 765 352325848 -1626271664 1560350943 1561153939
            2056161418 -1079306102 403216619 134217730</internalNodes>
          <leafValues>
            -3.3509778976440430e-01 1.8945150077342987e-01</leafValues></_>
        <_>
          <internalNodes>
            0 -1 790 -1078439736 -408197364 -92417310 -228633711
            -1144327680 -2024830198 -1795623468 -738551316</internalNodes>
          <leafValues>
            -2.9668805003166199e-01 2.0543107390403748e-01</leafValues></_>
        <_>
          <internalNodes>
            0 -1 530 -605489172 1399510370 1597888698 1368217578
            -2088009029 4260398 -2120623137 286203802</internalNodes>
          <leafValues>
            -3.5806542634963989e-01 1.7850522696971893e-01</leafValues></_>
        <_>
          <internalNodes>
            0 -1 264 -1149603074 -1078298646 -111028003 1060322751
            -1257079045 939031887 -610534401 -1026506501</internalNodes>
          <leafValues>
            -2.1404768526554108e-01 2.8751331567764282e-01</leafValues></_>
        <_>
          <internalNodes>
            0 -1 762 -1081583480 -952156927 281080050 -226789135
            -1210013120 -2025337753 25874912 -543519512</internalNodes>
          <leafValues>
            -2.6747953891754150e-01 2.2356988489627838e-01</leafValues></_>
        <_>
          <internalNodes>
            0 -1 110 -135269650 -527710080 1078112906 1079231131
            1375887586 34758658 1112011383 1114895191</internalNodes>
          <leafValues>
            -3.4863442182540894e-01 1.7385599017143250e-01</leafValues></_>
        <_>
          <internalNodes>
            0 -1 20 -1627537482 -33760001 -33555358 -795148 488314881
            930743163 493367296 1936929075</internalNodes>
          <leafValues>
            -4.6264559030532837e-01 1.3339640200138092e-01</leafValues></_>
        <_>
          <internalNodes>
            0 -1 747 -1883644432 -209980314 133898746 -780984321
            -1146094087 -2130225399 264057018 -209744449</internalNodes>
          <leafValues>
            -2.4664485454559326e-01 2.4021036922931671e-01</leafValues></_>
        <_>
          <internalNodes>
            0 -1 312 -827396118 -282120192 -25438761 -1827077937
            644005103 1734820238 1907717303 -1355836963</internalNodes>
          <leafValues>
            -2.3205602169036865e-01 2.4664533138275146e-01</leafValues></_>
        <_>
          <internalNodes>
            0 -1 734 -208012144 -1007484555 -218104833 -248374913
            -1013260804 302773672 1409014015 -215342193</internalNodes>
          <leafValues>
            -2.3555767536163330e-01 2.4352660775184631e-01</leafValues></_>
        <_>
          <internalNodes>
            0 -1 547 -16777545 -890591496 -2167809 3580666 -1611943942
            40832766 -356537857 50266810</internalNodes>
          <leafValues>
            -4.6002101898193359e-01 1.2673306465148926e-01</leafValues></_>
        <_>
          <internalNodes>
            0 -1 164 -2121617190 520175648 17367249 352669777
            -1702843654 -813003798 26848767 168493058</internalNodes>
          <leafValues>
            -3.0441990494728088e-01 1.8144391477108002e-01</leafValues></_>
        <_>
          <internalNodes>
            0 -1 357 -53183464 1002385808 1670568281 420435848
            1846414058 1069267178 184562312 1788810417</internalNodes>
          <leafValues>
            -2.8297328948974609e-01 1.9848735630512238e-01</leafValues></_>
        <_>
          <internalNodes>
            0 -1 825 -1848087480 -406113720 2059461760 -755411619
            -1359312384 -820028657 -1733296956 -625308232</internalNodes>
          <leafValues>
            -2.6933255791664124e-01 2.2019855678081512e-01</leafValues></_>
        <_>
          <internalNodes>
            0 -1 62 -545525045 1357885149 -1864788326 -2029266737
            1363608407 269775606 -211296017 -691538217</internalNodes>
          <leafValues>
            -1.7456847429275513e-01 3.1801700592041016e-01</leafValues></_>
        <_>
          <internalNodes>
            0 -1 893 -6038371 -10813372 1887039677 1367277599 -30220082
            -653590518 -1878263041 302710794</internalNodes>
          <leafValues>
            -2.3125129938125610e-01 2.4066577851772308e-01</leafValues></_>
        <_>
          <internalNodes>
            0 -1 605 -2094526228 -282373120 -590086432 -220511787
            -1426863002 -1025528305 -2078608393 -5600771</internalNodes>
          <leafValues>
            -2.3272284865379333e-01 2.4284410476684570e-01</leafValues></_>
        <_>
          <internalNodes>
            0 -1 459 -2071211278 1089340974 1068184563 1211069182
            -1880510093 -1723924426 -1611714306 428588031</internalNodes>
          <leafValues>
            -3.4200301766395569e-01 1.7154556512832642e-01</leafValues></_>
        <_>
          <internalNodes>
            0 -1 679 -1846012820 -1346696163 -581050433 -143057809
            -1892016291 -278179337 -1614881393 -1347281551</internalNodes>
          <leafValues>
            -3.2249349355697632e-01 1.6400967538356781e-01</leafValues></_>
        <_>
          <internalNodes>
            0 -1 152 -540025621 -122886585 1414021784 1111803994
            1363309186 1113595954 1342218910 1175732983</internalNodes>
          <leafValues>
            -2.9686847329139709e-01 1.7853426933288574e-01</leafValues></_>
        <_>
          <internalNodes>
            0 -1 911 -203697984 -1286873056 1938159826 27247959
            -161558398 1342920342 -498943393 -771038209</internalNodes>
          <leafValues>
            -2.3231731355190277e-01 2.3595751821994781e-01</leafValues></_>
        <_>
          <internalNodes>
            0 -1 242 1250070672 266333940 -1659892715 -1928389367
            -820999280 -1367230046 -1947615909 -1006630912</internalNodes>
          <leafValues>
            -2.8666344285011292e-01 1.9146299362182617e-01</leafValues></_>
        <_>
          <internalNodes>
            0 -1 481 -1942031070 -545742806 57373502 -822083064
            -1577412136 1932224447 55185821 1129038009</internalNodes>
          <leafValues>
            -3.5961627960205078e-01 1.4376214146614075e-01</leafValues></_></weakClassifiers></_>
    <!-- stage 8 -->
    <_>
      <maxWeakCount>39</maxWeakCount>
      <stageThreshold>-1.9813673496246338e+00</stageThreshold>
      <weakClassifiers>
        <_>
          <internalNodes>
            0 -1 129 -1334 -84938038 1073893958 1439679427 1998746114
            1342374416 1394078551 2002252615</internalNodes>
          <leafValues>
            -4.3982893228530884e-01 1.4733432233333588e-01</leafValues></_>
        <_>
          <internalNodes>
            0 -1 319 -3652 1342206444 -276828161 1430262064 312602784
            431571073 -1850606598 464133115</internalNodes>
          <leafValues>
            -3.8048577308654785e-01 1.7718541622161865e-01</leafValues></_>
        <_>
          <internalNodes>
            0 -1 467 419467480 -1614215040 285282777 1595740561
            -1417115414 -1081474934 285253051 134217728</internalNodes>
          <leafValues>
            -4.1727349162101746e-01 1.5811505913734436e-01</leafValues></_>
        <_>
          <internalNodes>
            0 -1 875 -786946 229852408 -538445878 -1954548499 268402414
            805257199 1994358511 1761605615</internalNodes>
          <leafValues>
            -2.2290730476379395e-01 2.8228431940078735e-01</leafValues></_>
        <_>
          <internalNodes>
            0 -1 834 529062104 252645504 285462993 1595740625 982006522
            -1953789752 285249707 -1618016046</internalNodes>
          <leafValues>
            -2.7564257383346558e-01 2.1905966103076935e-01</leafValues></_>
        <_>
          <internalNodes>
            0 -1 44 -749997333 -607128881 1615329410 -2126260539
            1917317859 1447260674 1396961743 -145229833</internalNodes>
          <leafValues>
            -1.8259219825267792e-01 3.2309028506278992e-01</leafValues></_>
        <_>
          <internalNodes>
            0 -1 73 -1130725 2002219793 -69255203 -201640001 -1593954058
            272072835 570364156 930812095</internalNodes>
          <leafValues>
            -5.2955031394958496e-01 9.1914027929306030e-02</leafValues></_>
        <_>
          <internalNodes>
            0 -1 383 -58723726 -791186690 -1640268592 1432571711
            -1795186447 -1944705616 -1929381648 -1741185025</internalNodes>
          <leafValues>
            -2.4082005023956299e-01 2.5343453884124756e-01</leafValues></_>
        <_>
          <internalNodes>
            0 -1 333 -356879122 1037717098 -1574961446 1060642744
            -1434296579 -1505534081 -2021395969 -2100327233</internalNodes>
          <leafValues>
            -2.4890293180942535e-01 2.3115067183971405e-01</leafValues></_>
        <_>
          <internalNodes>
            0 -1 656 -1350019592 -290500256 -801383960 1920620156
            -1080492478 -1021617542 -1834298384 -1153786696</internalNodes>
          <leafValues>
            -2.6489263772964478e-01 2.0665651559829712e-01</leafValues></_>
        <_>
          <internalNodes>
            0 -1 775 -1424554896 -268820248 -1879073793 -471090731
            -1411400453 181023470 150932475 1398528312</internalNodes>
          <leafValues>
            -3.0112972855567932e-01 1.8895769119262695e-01</leafValues></_>
        <_>
          <internalNodes>
            0 -1 506 533222620 999903312 1364218111 1594053853 998922410
            -14792696 454720511 -1693644102</internalNodes>
          <leafValues>
            -2.1821013092994690e-01 2.3991607129573822e-01</leafValues></_>
        <_>
          <internalNodes>
            0 -1 31 2004353019 -1651441773 2111831921 -4858288
            1431633268 -2002716892 -186862172 1080053808</internalNodes>
          <leafValues>
            -4.5097473263740540e-01 1.0629234462976456e-01</leafValues></_>
        <_>
          <internalNodes>
            0 -1 139 -1049910 -926222130 37902559 6801807 1650610882
            39927874 1073935359 1380181847</internalNodes>
          <leafValues>
            -2.9404246807098389e-01 1.7101435363292694e-01</leafValues></_>
        <_>
          <internalNodes>
            0 -1 607 -1348989718 -286635382 -21498173 -222340135
            -1346721265 1153345639 -2119518729 -4548099</internalNodes>
          <leafValues>
            -2.0499216020107269e-01 2.5915497541427612e-01</leafValues></_>
        <_>
          <internalNodes>
            0 -1 204 -1071911376 -568917998 -27263746 1465060862
            -342098236 -82673488 297269500 1026758079</internalNodes>
          <leafValues>
            -3.2363504171371460e-01 1.5551966428756714e-01</leafValues></_>
        <_>
          <internalNodes>
            0 -1 618 -1342349464 -324051968 -406986062 -222691128
            -1362102778 -982694052 -1817263883 -1078329096</internalNodes>
          <leafValues>
            -2.4371194839477539e-01 2.1503266692161560e-01</leafValues></_>
        <_>
          <internalNodes>
            0 -1 723 1541640665 2002739959 1427856351 -614605345
            -272320086 -1078243141 -1145316385 -2013069302</internalNodes>
          <leafValues>
            -1.6216592490673065e-01 3.0284669995307922e-01</leafValues></_>
        <_>
          <internalNodes>
            0 -1 649 1911553868 1735391021 1911286414 1882456046
            -1879061052 88760133 -1711318632 1363140607</internalNodes>
          <leafValues>
            -3.4671491384506226e-01 1.4363759756088257e-01</leafValues></_>
        <_>
          <internalNodes>
            0 -1 153 -2633517 -10767790 -989144834 -1026853157
            1464221762 1397817425 1073762527 1551234295</internalNodes>
          <leafValues>
            -2.7370199561119080e-01 1.8193601071834564e-01</leafValues></_>
        <_>
          <internalNodes>
            0 -1 778 -1182265072 -473212183 -40273213 -234136099
            -1881212830 -888693446 -1759848969 -4550147</internalNodes>
          <leafValues>
            -1.9661588966846466e-01 2.5521767139434814e-01</leafValues></_>
        <_>
          <internalNodes>
            0 -1 366 -318051090 1064029442 -23625793 173006687
            1206897647 -424686449 2013231087 -1366305281</internalNodes>
          <leafValues>
            -1.7770551145076752e-01 3.0028429627418518e-01</leafValues></_>
        <_>
          <internalNodes>
            0 -1 431 -16843010 -562241925 -52494338 -268370160
            -270538002 2820206 -1595932936 327856</internalNodes>
          <leafValues>
            -5.1769864559173584e-01 1.1087363958358765e-01</leafValues></_>
        <_>
          <internalNodes>
            0 -1 906 -741879614 -140521469 342032603 391889663
            -437586742 1376420546 -502279921 -805045249</internalNodes>
          <leafValues>
            -2.0050026476383209e-01 2.5463128089904785e-01</leafValues></_>
        <_>
          <internalNodes>
            0 -1 884 -69477896 187678992 1090895872 285693905 568948968
            256443592 24561811 1499321572</internalNodes>
          <leafValues>
            -2.9083427786827087e-01 1.6738905012607574e-01</leafValues></_>
        <_>
          <internalNodes>
            0 -1 93 -628365110 1081787522 547330 1208934411 1663460066
            1393754691 1090532939 1143301975</internalNodes>
          <leafValues>
            -3.5628756880760193e-01 1.4045263826847076e-01</leafValues></_>
        <_>
          <internalNodes>
            0 -1 781 -1375134704 -270567991 -1325860637 1886589681
            -1882284474 -967938514 -675638537 -222646836</internalNodes>
          <leafValues>
            -2.4199099838733673e-01 2.0500014722347260e-01</leafValues></_>
        <_>
          <internalNodes>
            0 -1 838 -305150976 -941812459 -19509 -1019093417
            -1610661724 265278683 1519180239 -215861441</internalNodes>
          <leafValues>
            -2.3443271219730377e-01 2.0618961751461029e-01</leafValues></_>
        <_>
          <internalNodes>
            0 -1 45 399112434 -401370464 571924817 88467037 1661006003
            -498704318 1191272691 1145566327</internalNodes>
          <leafValues>
            -3.0115592479705811e-01 1.6779947280883789e-01</leafValues></_>
        <_>
          <internalNodes>
            0 -1 623 998922488 423334024 1427128569 529600848 981995194
            261050424 143327354 469768728</internalNodes>
          <leafValues>
            -3.4354573488235474e-01 1.3403065502643585e-01</leafValues></_>
        <_>
          <internalNodes>
            0 -1 711 -1344709282 -356160416 -516655936 -233814535
            -1074864557 -955295956 -1885800971 -4553224</internalNodes>
          <leafValues>
            -2.1565583348274231e-01 2.2698444128036499e-01</leafValues></_>
        <_>
          <internalNodes>
            0 -1 335 -906041798 1115115782 2119552754 1376797616
            14409816 -1875730316 -1860905479 822285311</internalNodes>
          <leafValues>
            -3.8924208283424377e-01 1.2544171512126923e-01</leafValues></_>
        <_>
          <internalNodes>
            0 -1 117 1601404126 -163414294 2047264857 1621845519
            1967345808 1877833318 1164001675 1280210455</internalNodes>
          <leafValues>
            -3.3379086852073669e-01 1.4539854228496552e-01</leafValues></_>
        <_>
          <internalNodes>
            0 -1 294 566936826 421331088 16871921 458687825 -821899590
            -276101811 402777083 134414338</internalNodes>
          <leafValues>
            -2.9960045218467712e-01 1.6062454879283905e-01</leafValues></_>
        <_>
          <internalNodes>
            0 -1 519 -470486080 1968568391 -1023477525 1887041103
            41476711 402113775 44282871 -1148517925</internalNodes>
          <leafValues>
            -2.2361986339092255e-01 2.1466891467571259e-01</leafValues></_>
        <_>
          <internalNodes>
            0 -1 60 -21233744 -147702982 -2115588 -147639501 -2116337644
            825375283 285579468 2003186548</internalNodes>
          <leafValues>
            -4.4956594705581665e-01 1.1374317109584808e-01</leafValues></_>
        <_>
          <internalNodes>
            0 -1 236 -1141330258 -138934291 -1094779393 -1279517464
            758288690 -147314054 400393268 40403160</internalNodes>
          <leafValues>
            -3.6162957549095154e-01 1.3141894340515137e-01</leafValues></_>
        <_>
          <internalNodes>
            0 -1 641 -1342695314 -298951518 -654383925 -224405000
            -1426063794 -2053702023 400216807 -549810947</internalNodes>
          <leafValues>
            -2.2684377431869507e-01 2.1585269272327423e-01</leafValues></_>
        <_>
          <internalNodes>
            0 -1 604 -1893259152 -1049681684 14621234 1131374842
            602848241 922408 12267963 1387137978</internalNodes>
          <leafValues>
            -4.3860107660293579e-01 1.1041601002216339e-01</leafValues></_></weakClassifiers></_>
    <!-- stage 9 -->
    <_>
      <maxWeakCount>44</maxWeakCount>
      <stageThreshold>-1.8322888612747192e+00</stageThreshold>
      <weakClassifiers>
        <_>
          <internalNodes>
            0 -1 10 -11012105 -13107209 -136052737 -36176897 2004350965
            -8915081 -9980177 -414993408</internalNodes>
          <leafValues>
            -2.9324200749397278e-01 2.4795949459075928e-01</leafValues></_>
        <_>
          <internalNodes>
            0 -1 541 -1074036816 -1074043984 -54828808 -9211406
            -1912701442 -2061140097 -1175226116 -713852937</internalNodes>
          <leafValues>
            -2.5188896059989929e-01 2.4312651157379150e-01</leafValues></_>
        <_>
          <internalNodes>
            0 -1 29 -4210761 -148677 -513 -134217953 -2123632
            -1086636237 -67153668 863712063</internalNodes>
          <leafValues>
            -3.8957151770591736e-01 1.5476046502590179e-01</leafValues></_>
        <_>
          <internalNodes>
            0 -1 310 -1212501326 -4575494 -1282910273 1058675384
            -1354313350 2004775482 -2016509188 -1009858408</internalNodes>
          <leafValues>
            -2.2557429969310760e-01 2.8278321027755737e-01</leafValues></_>
        <_>
          <internalNodes>
            0 -1 821 136034814 1567612397 670792698 1107156474
            -1149895169 267044095 1006573823 1526718463</internalNodes>
          <leafValues>
            -3.1373429298400879e-01 1.6909983754158020e-01</leafValues></_>
        <_>
          <internalNodes>
            0 -1 639 -1121954476 -268796555 -459009 -1036362403
            -1342636163 -2021787777 -1476594177 -1078305283</internalNodes>
          <leafValues>
            -3.0541887879371643e-01 1.6841284930706024e-01</leafValues></_>
        <_>
          <internalNodes>
            0 -1 145 1903652978 -1183756175 1003434618 -1276149761
            -1101577453 -1150073238 1031229763 2136307687</internalNodes>
          <leafValues>
            -3.5262760519981384e-01 1.6877990961074829e-01</leafValues></_>
        <_>
          <internalNodes>
            0 -1 174 495601854 -1927315256 16778553 354618351
            -1353392737 -5267521 -1928482817 -1006501886</internalNodes>
          <leafValues>
            -2.4835272133350372e-01 2.1162638068199158e-01</leafValues></_>
        <_>
          <internalNodes>
            0 -1 842 -1695810208 -812673771 -302031469 -1069678817
            -1413759864 265240463 469702075 -231006409</internalNodes>
          <leafValues>
            -2.5559797883033752e-01 1.9099156558513641e-01</leafValues></_>
        <_>
          <internalNodes>
            0 -1 1 -612368641 -1749553957 33279735 116375967 1130849271
            1662189687 592962287 196738</internalNodes>
          <leafValues>
            -2.8919920325279236e-01 1.6995900869369507e-01</leafValues></_>
        <_>
          <internalNodes>
            0 -1 673 -603989826 -1061453660 -285220865 1084813807
            -754975044 145271720 -8454401 1074318221</internalNodes>
          <leafValues>
            -3.7394312024116516e-01 1.4402917027473450e-01</leafValues></_>
        <_>
          <internalNodes>
            0 -1 553 61440 -1079031947 1608251387 -41475 -1442856961
            -277350401 -1881147401 -1883548163</internalNodes>
          <leafValues>
            -2.3296371102333069e-01 2.1903960406780243e-01</leafValues></_>
        <_>
          <internalNodes>
            0 -1 79 -101713174 -804335733 1211134284 -783292970
            1416001202 1212171332 1442281463 -801092025</internalNodes>
          <leafValues>
            -2.7943342924118042e-01 1.6675253212451935e-01</leafValues></_>
        <_>
          <internalNodes>
            0 -1 119 -495816110 -1556131713 1071626970 -50177
            -1840055469 -79269808 929559488 1064793087</internalNodes>
          <leafValues>
            -3.6482185125350952e-01 1.2274567782878876e-01</leafValues></_>
        <_>
          <internalNodes>
            0 -1 228 -95760166 -108003304 33554687 1107509325 151668874
            -1626800104 134875391 168296651</internalNodes>
          <leafValues>
            -2.7060434222221375e-01 1.8365973234176636e-01</leafValues></_>
        <_>
          <internalNodes>
            0 -1 40 -84214403 -327718 -335875 -537758288 -2115272484
            271767553 -1577088772 287441056</internalNodes>
          <leafValues>
            -5.5079156160354614e-01 9.1966859996318817e-02</leafValues></_>
        <_>
          <internalNodes>
            0 -1 835 -75238952 1066500248 151097617 421335377 529052410
            263883000 319534263 -1665431115</internalNodes>
          <leafValues>
            -2.3110999166965485e-01 2.0740631222724915e-01</leafValues></_>
        <_>
          <internalNodes>
            0 -1 684 -787943168 1473189157 -771917074 -234025233
            -2096172928 1095612167 -1678648903 -83227889</internalNodes>
          <leafValues>
            -2.3861630260944366e-01 1.9560186564922333e-01</leafValues></_>
        <_>
          <internalNodes>
            0 -1 626 419596496 -1861156840 31576561 1498747379 142654122
            -1079309111 662459 134283264</internalNodes>
          <leafValues>
            -3.2777842879295349e-01 1.4175753295421600e-01</leafValues></_>
        <_>
          <internalNodes>
            0 -1 53 -500436293 256960 1611328072 6400991 1997763447
            -820550025 1346597615 -968399513</internalNodes>
          <leafValues>
            -2.2308677434921265e-01 2.0609766244888306e-01</leafValues></_>
        <_>
          <internalNodes>
            0 -1 675 -1940383236 -1346413187 -1076494337 -281129121
            -1616323075 -1342177281 532323773 -1900405252</internalNodes>
          <leafValues>
            -3.1882894039154053e-01 1.3370491564273834e-01</leafValues></_>
        <_>
          <internalNodes>
            0 -1 417 2131294974 905834396 251924538 1328621912 987393774
            795104631 141433054 1043544170</internalNodes>
          <leafValues>
            -2.7943980693817139e-01 1.7117114365100861e-01</leafValues></_>
        <_>
          <internalNodes>
            0 -1 704 187267834 231704766 61483758 1086164675 -1082807815
            210397631 1073721599 233815483</internalNodes>
          <leafValues>
            -3.5885837674140930e-01 1.2898367643356323e-01</leafValues></_>
        <_>
          <internalNodes>
            0 -1 924 -6291774 362530888 302108848 38793415 -1878396864
            33800512 1076877327 -1067714601</internalNodes>
          <leafValues>
            -2.3078282177448273e-01 1.9519998133182526e-01</leafValues></_>
        <_>
          <internalNodes>
            0 -1 441 -956305184 552759594 -34998289 282096371 -212863424
            -1574113214 535494639 456676695</internalNodes>
          <leafValues>
            -3.2798546552658081e-01 1.3295586407184601e-01</leafValues></_>
        <_>
          <internalNodes>
            0 -1 345 -561447700 2004376902 -1495350169 997876604
            -399844309 2002256972 -2137401353 -1801483009</internalNodes>
          <leafValues>
            -2.1753785014152527e-01 2.0573434233665466e-01</leafValues></_>
        <_>
          <internalNodes>
            0 -1 469 -16780876 -134406788 -420848133 -553084295
            -495390443 -1876203349 -1554851703 1125023761</internalNodes>
          <leafValues>
            -3.1182599067687988e-01 1.4109827578067780e-01</leafValues></_>
        <_>
          <internalNodes>
            0 -1 358 -551294469 -1086337848 1560351197 1595753171
            -972362005 -19143757 201663999 -1660878846</internalNodes>
          <leafValues>
            -1.8769954144954681e-01 2.3735061287879944e-01</leafValues></_>
        <_>
          <internalNodes>
            0 -1 134 -2098433 1285286618 1166072543 1005441759
            1934054631 2099467782 1174929375 -682098825</internalNodes>
          <leafValues>
            -1.4907443523406982e-01 2.8535211086273193e-01</leafValues></_>
        <_>
          <internalNodes>
            0 -1 782 -1644298760 -76835482 1207909374 -782166161
            -1142686210 -1997590526 201275578 -209993751</internalNodes>
          <leafValues>
            -1.8759992718696594e-01 2.3946997523307800e-01</leafValues></_>
        <_>
          <internalNodes>
            0 -1 298 -604359254 -136382232 -1764663825 -43099672
            -1083110599 -210065221 2010977152 707723</internalNodes>
          <leafValues>
            -2.9860213398933411e-01 1.5025207400321960e-01</leafValues></_>
        <_>
          <internalNodes>
            0 -1 822 -1562832574 -1014278883 -254291711 -763902211
            -1278226939 1173073723 -1747138571 -214263316</internalNodes>
          <leafValues>
            -2.2482459247112274e-01 1.9474312663078308e-01</leafValues></_>
        <_>
          <internalNodes>
            0 -1 766 -1645244264 534593555 495557489 152130651
            -1702655334 -1112683115 -1939088357 212992</internalNodes>
          <leafValues>
            -2.8944879770278931e-01 1.5031041204929352e-01</leafValues></_>
        <_>
          <internalNodes>
            0 -1 96 41899282 -582434457 971371120 -137118734 561086796
            -1200376383 861009348 1064784383</internalNodes>
          <leafValues>
            -3.2581436634063721e-01 1.3684765994548798e-01</leafValues></_>
        <_>
          <internalNodes>
            0 -1 537 -1677756422 -940612294 -163613968 1424981758
            -1946445891 -1053326148 -1146651138 -641732677</internalNodes>
          <leafValues>
            -1.9451887905597687e-01 2.2113315761089325e-01</leafValues></_>
        <_>
          <internalNodes>
            0 -1 201 150632058 393888341 779436031 535509215 -642219334
            1072890991 2003833707 2138307443</internalNodes>
          <leafValues>
            -2.6993635296821594e-01 1.6455119848251343e-01</leafValues></_>
        <_>
          <internalNodes>
            0 -1 797 629155088 -1916977804 -12299 -5231108 -1476784272
            -537067651 -1359308939 783814004</internalNodes>
          <leafValues>
            -5.0964641571044922e-01 8.6936511099338531e-02</leafValues></_>
        <_>
          <internalNodes>
            0 -1 914 -713048064 428163392 -2092580784 12678243
            -670285696 1342260224 1351578715 1111891</internalNodes>
          <leafValues>
            -3.7139382958412170e-01 1.1214831471443176e-01</leafValues></_>
        <_>
          <internalNodes>
            0 -1 342 276226738 -798621069 -1645223181 1350263293
            -1736706857 -1878916495 -1946813953 292754909</internalNodes>
          <leafValues>
            -3.3658686280250549e-01 1.2531943619251251e-01</leafValues></_>
        <_>
          <internalNodes>
            0 -1 397 -72094486 389766463 -552667413 844848095 1199271919
            -1320948081 1398231795 -1685326387</internalNodes>
          <leafValues>
            -1.8243581056594849e-01 2.3602682352066040e-01</leafValues></_>
        <_>
          <internalNodes>
            0 -1 870 -573580152 391771981 -753261489 17554383 -813885950
            -1817204359 -1421297841 -2145649153</internalNodes>
          <leafValues>
            -2.0632460713386536e-01 2.1083863079547882e-01</leafValues></_>
        <_>
          <internalNodes>
            0 -1 83 -75236694 -1844534645 722096778 -1060454273
            1665606374 18047075 1459904351 1111998839</internalNodes>
          <leafValues>
            -2.8587996959686279e-01 1.4195382595062256e-01</leafValues></_>
        <_>
          <internalNodes>
            0 -1 350 -59094766 -1791015657 -1384779232 -360742913
            -1485346089 -1485481866 494356578 -1623756801</internalNodes>
          <leafValues>
            -2.2471621632575989e-01 1.9441042840480804e-01</leafValues></_>
        <_>
          <internalNodes>
            0 -1 758 -1112977656 -271627739 1281949632 1919449665
            -2017740028 1312783890 81433044 -683763612</internalNodes>
          <leafValues>
            -2.8599306941032410e-01 1.4911155402660370e-01</leafValues></_></weakClassifiers></_>
    <!-- stage 10 -->
    <_>
      <maxWeakCount>45</maxWeakCount>
      <stageThreshold>-1.9701294898986816e+00</stageThreshold>
      <weakClassifiers>
        <_>
          <internalNodes>
            0 -1 7 -1 -3145761 -36044801 -153092097 2003269495 -655369
            -559114 -16810137</internalNodes>
          <leafValues>
            -2.6723256707191467e-01 2.9319465160369873e-01</leafValues></_>
        <_>
          <internalNodes>
            0 -1 699 -4342 795869039 -84939200 1929052143 -268435711
            1199570783 -134220780 1962934271</internalNodes>
          <leafValues>
            -4.5042195916175842e-01 1.5200360119342804e-01</leafValues></_>
        <_>
          <internalNodes>
            0 -1 36 -9175049 -806027273 -6295555 -6947023 -581645188
            141325828 -119685386 7361876</internalNodes>
          <leafValues>
            -4.5697125792503357e-01 1.2470281124114990e-01</leafValues></_>
        <_>
          <internalNodes>
            0 -1 614 -1091010564 -1141342211 -196609 1069031420
            -1342537731 -196737 -1343586433 -1078452747</internalNodes>
          <leafValues>
            -2.8974115848541260e-01 2.1424441039562225e-01</leafValues></_>
        <_>
          <internalNodes>
            0 -1 0 -1074003969 -1342190113 -33816577 -1476434433
            1198749687 1198999367 930609143 50528386</internalNodes>
          <leafValues>
            -2.7843564748764038e-01 2.0374654233455658e-01</leafValues></_>
        <_>
          <internalNodes>
            0 -1 109 1090462224 1937724287 -4228353 -5277697 314553080
            810751703 872411882 922687487</internalNodes>
          <leafValues>
            -4.6375027298927307e-01 9.3262486159801483e-02</leafValues></_>
        <_>
          <internalNodes>
            0 -1 463 -2097156 -1648394252 223859226 -5014533 -1090585090
            -1889306761 -1728579330 -1942782093</internalNodes>
          <leafValues>
            -1.8719084560871124e-01 2.7161151170730591e-01</leafValues></_>
        <_>
          <internalNodes>
            0 -1 496 -1207992402 661651263 -201326900 1936982003
            1342132175 1198522191 -671361547 -151323137</internalNodes>
          <leafValues>
            -2.5605523586273193e-01 1.8654234707355499e-01</leafValues></_>
        <_>
          <internalNodes>
            0 -1 270 437389374 -536984961 1065294650 528425599
            -615318774 1501254498 309506875 2066972922</internalNodes>
          <leafValues>
            -3.4762725234031677e-01 1.3678102195262909e-01</leafValues></_>
        <_>
          <internalNodes>
            0 -1 896 -565709118 871167231 -803939366 383053567
            -305668398 -296099899 -419434535 81133127</internalNodes>
          <leafValues>
            -2.6530489325523376e-01 1.7549699544906616e-01</leafValues></_>
        <_>
          <internalNodes>
            0 -1 596 12352 -268744859 -134353417 -88377505 -1358973065
            -268698113 -1342179337 -1892016651</internalNodes>
          <leafValues>
            -3.0392837524414063e-01 1.3900247216224670e-01</leafValues></_>
        <_>
          <internalNodes>
            0 -1 317 -13713902 -210293968 1056402558 857875258
            -1996508944 1203702327 15141116 658476799</internalNodes>
          <leafValues>
            -3.7411913275718689e-01 1.3349927961826324e-01</leafValues></_>
        <_>
          <internalNodes>
            0 -1 146 922187639 301666427 -1191707925 335118335
            -1149803965 -1411160201 998208321 2071943167</internalNodes>
          <leafValues>
            -2.6702323555946350e-01 1.7470338940620422e-01</leafValues></_>
        <_>
          <internalNodes>
            0 -1 2 1709961983 -2103968001 1074511936 86500429 1651996535
            -30940425 1114076871 196610</internalNodes>
          <leafValues>
            -3.0805686116218567e-01 1.3857662677764893e-01</leafValues></_>
        <_>
          <internalNodes>
            0 -1 586 -6 -15 1121919674 -550284869 -1074003969
            -1917845649 -33556226 -843055137</internalNodes>
          <leafValues>
            -1.3080362975597382e-01 3.4176969528198242e-01</leafValues></_>
        <_>
          <internalNodes>
            0 -1 637 -1078960676 -1363468947 -1 -1427436163 -1363247747
            -805306497 -1514514955 -1346757251</internalNodes>
          <leafValues>
            -2.7271229028701782e-01 1.6528780758380890e-01</leafValues></_>
        <_>
          <internalNodes>
            0 -1 235 -1107640402 -874767460 -268584993 -361972260
            796009471 -25547910 -1216376301 1114275976</internalNodes>
          <leafValues>
            -3.0481749773025513e-01 1.3696824014186859e-01</leafValues></_>
        <_>
          <internalNodes>
            0 -1 732 -1344461520 -419808772 -2013323777 1927995988
            -1953780806 34217965 14623483 1124829208</internalNodes>
          <leafValues>
            -3.4279435873031616e-01 1.2890189886093140e-01</leafValues></_>
        <_>
          <internalNodes>
            0 -1 184 -202378334 1914763243 -33818817 1934644007
            1190651685 -1465649241 1471410926 2130842077</internalNodes>
          <leafValues>
            -2.5813978910446167e-01 1.6444925963878632e-01</leafValues></_>
        <_>
          <internalNodes>
            0 -1 160 -35652129 -137694769 -234307333 -502246405
            1996702567 1998931766 1919119871 1983010663</internalNodes>
          <leafValues>
            -2.3422595858573914e-01 1.8796376883983612e-01</leafValues></_>
        <_>
          <internalNodes>
            0 -1 697 -1343275153 -289571333 -335546661 -226609281
            -1929386193 -411041937 -1765804043 -4548163</internalNodes>
          <leafValues>
            -1.5976782143115997e-01 2.7693301439285278e-01</leafValues></_>
        <_>
          <internalNodes>
            0 -1 470 457901112 423340271 186075509 223808479 -1173890424
            -5023030 -552382817 67241984</internalNodes>
          <leafValues>
            -3.0110889673233032e-01 1.4424873888492584e-01</leafValues></_>
        <_>
          <internalNodes>
            0 -1 880 -1083181112 792715048 365427968 1121023997
            -1075871806 32483911 -746392124 -1056964885</internalNodes>
          <leafValues>
            -2.6438888907432556e-01 1.6032432019710541e-01</leafValues></_>
        <_>
          <internalNodes>
            0 -1 551 -638070548 1090384100 -891651073 1355084543
            -218433612 586719392 -1611080195 453169541</internalNodes>
          <leafValues>
            -3.4249541163444519e-01 1.1777663975954056e-01</leafValues></_>
        <_>
          <internalNodes>
            0 -1 659 -1076208257 -289407139 -18294533 -226822307
            -1090846881 -952893571 -1090787403 -336644</internalNodes>
          <leafValues>
            -1.5082167088985443e-01 2.8188890218734741e-01</leafValues></_>
        <_>
          <internalNodes>
            0 -1 894 -539496309 2138526027 -1811705829 1360482335
            -157128565 -611647478 1347973231 212994</internalNodes>
          <leafValues>
            -2.2605788707733154e-01 1.9158658385276794e-01</leafValues></_>
        <_>
          <internalNodes>
            0 -1 279 -362086674 986339055 1228076750 791824381
            -1038550434 1800884089 -1073225473 -1072201251</internalNodes>
          <leafValues>
            -2.1884106099605560e-01 1.8659181892871857e-01</leafValues></_>
        <_>
          <internalNodes>
            0 -1 72 -587536458 2004018994 -8421505 1999894452
            -1061314540 825489012 824302792 2006061560</internalNodes>
          <leafValues>
            -3.9273214340209961e-01 1.1372648179531097e-01</leafValues></_>
        <_>
          <internalNodes>
            0 -1 292 -141113092 391690452 -871874433 1086669562
            1572473578 1072646266 1208560266 -553661369</internalNodes>
          <leafValues>
            -2.0277433097362518e-01 2.0575422048568726e-01</leafValues></_>
        <_>
          <internalNodes>
            0 -1 813 -1411614528 -269020569 -547891807 -266898753
            -2097328029 -954993732 -1782655497 -1757799111</internalNodes>
          <leafValues>
            -2.4296891689300537e-01 1.6950128972530365e-01</leafValues></_>
        <_>
          <internalNodes>
            0 -1 809 -1438178834 -1951923971 233816031 1627315801
            -1075906374 199956714 752368122 1078634556</internalNodes>
          <leafValues>
            -3.2296046614646912e-01 1.2942931056022644e-01</leafValues></_>
        <_>
          <internalNodes>
            0 -1 8 1072165815 132611413 -1548364301 1065817435
            1432613879 1464533073 1983346111 1291993090</internalNodes>
          <leafValues>
            -2.5476995110511780e-01 1.6400597989559174e-01</leafValues></_>
        <_>
          <internalNodes>
            0 -1 108 -1841867438 -2113159061 -144753905 -145016130
            -1317865652 -581701536 857011148 2132759534</internalNodes>
          <leafValues>
            -2.8208550810813904e-01 1.4397539198398590e-01</leafValues></_>
        <_>
          <internalNodes>
            0 -1 700 -1378664625 -352616589 -226113888 -88709135
            -1344410033 1198602879 -873204240 -1078029828</internalNodes>
          <leafValues>
            -1.8371833860874176e-01 2.2159394621849060e-01</leafValues></_>
        <_>
          <internalNodes>
            0 -1 873 -682649592 387563867 -1006242789 4581727 1674201152
            353187333 -765494761 268499807</internalNodes>
          <leafValues>
            -3.1102496385574341e-01 1.3629759848117828e-01</leafValues></_>
        <_>
          <internalNodes>
            0 -1 135 1945859786 1659289640 1182820384 134798346
            1376141958 203423744 1078149615 1146125079</internalNodes>
          <leafValues>
            -3.5735210776329041e-01 1.0809503495693207e-01</leafValues></_>
        <_>
          <internalNodes>
            0 -1 663 453560792 192909440 1159283280 526075121 1872965370
            246593576 1225411816 406405152</internalNodes>
          <leafValues>
            -3.1500411033630371e-01 1.2412556260824203e-01</leafValues></_>
        <_>
          <internalNodes>
            0 -1 698 262696428 -672302843 -1021844758 1394690458
            -1880424661 -2046052566 -1140897656 -147895362</internalNodes>
          <leafValues>
            -2.0833982527256012e-01 1.9258327782154083e-01</leafValues></_>
        <_>
          <internalNodes>
            0 -1 770 -1392566156 -490209025 1475867647 -500648185
            -1999716676 328805561 193936750 1393093128</internalNodes>
          <leafValues>
            -2.9880225658416748e-01 1.3632193207740784e-01</leafValues></_>
        <_>
          <internalNodes>
            0 -1 534 -1111654401 -331858563 -138422065 -97881187
            -272958593 1769886031 -85265929 -71645187</internalNodes>
          <leafValues>
            -1.4335417747497559e-01 2.9391121864318848e-01</leafValues></_>
        <_>
          <internalNodes>
            0 -1 21 1453848309 126741214 793339189 1061935431 1197996023
            -14409 -547916801 -956104702</internalNodes>
          <leafValues>
            -1.7429541051387787e-01 2.3304983973503113e-01</leafValues></_>
        <_>
          <internalNodes>
            0 -1 846 1834947592 1332692845 -552361278 1920847743
            -1948342528 1330349951 -610610044 -688332806</internalNodes>
          <leafValues>
            -2.5908431410789490e-01 1.5692897140979767e-01</leafValues></_>
        <_>
          <internalNodes>
            0 -1 883 -213780488 734773464 1434541568 64082641 232700306
            248103144 1078444360 1264971844</internalNodes>
          <leafValues>
            -2.7721208333969116e-01 1.5038993954658508e-01</leafValues></_>
        <_>
          <internalNodes>
            0 -1 261 -1132743106 1610261106 -208437317 2032018046
            -578839041 1970963831 -729487468 -1987131201</internalNodes>
          <leafValues>
            -1.7893871665000916e-01 2.3282217979431152e-01</leafValues></_>
        <_>
          <internalNodes>
            0 -1 615 193339642 1171196074 1028545142 1149176935
            -1550605894 220933310 -1619775269 61808555</internalNodes>
          <leafValues>
            -3.8293951749801636e-01 1.0721731930971146e-01</leafValues></_></weakClassifiers></_>
    <!-- stage 11 -->
    <_>
      <maxWeakCount>52</maxWeakCount>
      <stageThreshold>-1.9559129476547241e+00</stageThreshold>
      <weakClassifiers>
        <_>
          <internalNodes>
            0 -1 14 2138568695 924312675 -16254985 -10488525 2004318199
            -559117 2138568191 -11313150</internalNodes>
          <leafValues>
            -2.6806926727294922e-01 2.2730094194412231e-01</leafValues></_>
        <_>
          <internalNodes>
            0 -1 267 -19235074 1056603886 -19146017 1057701819
            -297238561 708542335 -817104897 -1024474881</internalNodes>
          <leafValues>
            -1.9755980372428894e-01 2.6499792933464050e-01</leafValues></_>
        <_>
          <internalNodes>
            0 -1 125 1968404307 2113624026 1073446767 859519979
            1007767555 1064522822 2121498471 2138272719</internalNodes>
          <leafValues>
            -3.4822875261306763e-01 1.4348547160625458e-01</leafValues></_>
        <_>
          <internalNodes>
            0 -1 783 -1961121288 -847429396 805252090 1097833450
            -1074398725 233791722 872354047 2080349691</internalNodes>
          <leafValues>
            -2.7228930592536926e-01 1.9922319054603577e-01</leafValues></_>
        <_>
          <internalNodes>
            0 -1 414 -112 -1075876048 -1349256488 -44859911 -1783192322
            -1921555164 -1728579344 -1669857289</internalNodes>
          <leafValues>
            -2.2746631503105164e-01 2.0861303806304932e-01</leafValues></_>
        <_>
          <internalNodes>
            0 -1 728 38285568 -8553603 -4260355 -153419905 -1346388549
            -666257 -1080033793 -1623712395</internalNodes>
          <leafValues>
            -2.9297897219657898e-01 1.4397855103015900e-01</leafValues></_>
        <_>
          <internalNodes>
            0 -1 923 -8390454 59461632 1376776256 38262085 -1668288512
            42713152 377734175 1078720503</internalNodes>
          <leafValues>
            -2.7850505709648132e-01 1.6904056072235107e-01</leafValues></_>
        <_>
          <internalNodes>
            0 -1 23 -2121945 -1210475591 -805306547 -34103818 -555774192
            521870875 -68472576 326841147</internalNodes>
          <leafValues>
            -3.5947704315185547e-01 1.3214077055454254e-01</leafValues></_>
        <_>
          <internalNodes>
            0 -1 253 -99620118 -9441272 -34357761 861901007 1669328879
            1735878541 1441910995 -273710643</internalNodes>
          <leafValues>
            -2.1862748265266418e-01 1.9514697790145874e-01</leafValues></_>
        <_>
          <internalNodes>
            0 -1 140 -1025 -120526274 1082191948 1653659455 1444303046
            1375998496 1111775191 -430901417</internalNodes>
          <leafValues>
            -2.0149652659893036e-01 2.1189835667610168e-01</leafValues></_>
        <_>
          <internalNodes>
            0 -1 839 -353637152 -537438891 -806361869 -751207041
            -1409299218 -1881209441 1054545407 -80593129</internalNodes>
          <leafValues>
            -1.7259542644023895e-01 2.4314169585704803e-01</leafValues></_>
        <_>
          <internalNodes>
            0 -1 667 -2503337 -1896210186 -52441089 1894696958 -2495489
            -1983303937 -100942849 21964954</internalNodes>
          <leafValues>
            -3.5441908240318298e-01 1.0657763481140137e-01</leafValues></_>
        <_>
          <internalNodes>
            0 -1 434 -1157934664 -8511107 1207917563 2001243065
            -1573335015 1931428875 -2078615528 1393281689</internalNodes>
          <leafValues>
            -2.7701231837272644e-01 1.5209963917732239e-01</leafValues></_>
        <_>
          <internalNodes>
            0 -1 76 -91503926 143311554 1111016018 73105635 1627537522
            268632135 1075005267 1079498583</internalNodes>
          <leafValues>
            -3.5909014940261841e-01 1.1876258999109268e-01</leafValues></_>
        <_>
          <internalNodes>
            0 -1 677 -795512 1466893317 -1939239649 22118367 -206663282
            -1352664021 -303321777 143785855</internalNodes>
          <leafValues>
            -2.4585159122943878e-01 1.6612379252910614e-01</leafValues></_>
        <_>
          <internalNodes>
            0 -1 580 -1476690433 -292847761 -1114113 -231056900
            -1142227089 -1922080897 -1296107529 -4552452</internalNodes>
          <leafValues>
            -1.4470483362674713e-01 2.8246307373046875e-01</leafValues></_>
        <_>
          <internalNodes>
            0 -1 218 1065287406 -118194196 -159452532 -1142785078
            -1628508177 -43367348 -1513622321 -165461585</internalNodes>
          <leafValues>
            -1.7273639142513275e-01 2.4098291993141174e-01</leafValues></_>
        <_>
          <internalNodes>
            0 -1 389 -586618661 -1684293148 386481623 521527215
            -74728261 -1075053857 -1895694337 -2147287038</internalNodes>
          <leafValues>
            -2.0074051618576050e-01 2.1434983611106873e-01</leafValues></_>
        <_>
          <internalNodes>
            0 -1 691 -1684484784 -202665215 -939544066 -781705413
            -1682374661 -2113422067 127604922 -680851208</internalNodes>
          <leafValues>
            -2.1609181165695190e-01 1.9354653358459473e-01</leafValues></_>
        <_>
          <internalNodes>
            0 -1 793 -1073906177 -268472527 -193595661 1918058495
            -1227179257 -2090876050 -1547766288 -4535300</internalNodes>
          <leafValues>
            -1.4269033074378967e-01 2.6608106493949890e-01</leafValues></_>
        <_>
          <internalNodes>
            0 -1 885 -83103528 319766672 285282321 286724305 -670918470
            185073736 16892379 220018929</internalNodes>
          <leafValues>
            -2.6533615589141846e-01 1.4896120131015778e-01</leafValues></_>
        <_>
          <internalNodes>
            0 -1 881 2147349440 190315904 1499789440 38990535 290448864
            35243586 281843076 73267154</internalNodes>
          <leafValues>
            -3.2954499125480652e-01 1.2612818181514740e-01</leafValues></_>
        <_>
          <internalNodes>
            0 -1 611 -438667956 -8425651 1909717464 1902194158
            -1480604173 1162351957 301716976 -1791356449</internalNodes>
          <leafValues>
            -2.4229826033115387e-01 1.5335005521774292e-01</leafValues></_>
        <_>
          <internalNodes>
            0 -1 89 170633748 -1082678501 2147293951 -9177281 855314660
            1459487739 871847616 1904159483</internalNodes>
          <leafValues>
            -3.6761835217475891e-01 1.0928852111101151e-01</leafValues></_>
        <_>
          <internalNodes>
            0 -1 325 -834687053 -149503174 -537428353 1931617064
            -922764065 -71917645 -1040774664 -885526849</internalNodes>
          <leafValues>
            -1.5188232064247131e-01 2.7436560392379761e-01</leafValues></_>
        <_>
          <internalNodes>
            0 -1 837 -1275260928 1264549239 -774911701 -1017939105
            -2082531262 -2022730377 -1630557745 -770566241</internalNodes>
          <leafValues>
            -2.0680013298988342e-01 1.9811566174030304e-01</leafValues></_>
        <_>
          <internalNodes>
            0 -1 42 767556095 -1357128573 1977139403 229839031
            1126389735 1796440903 52664239 124982199</internalNodes>
          <leafValues>
            -2.4445565044879913e-01 1.5632721781730652e-01</leafValues></_>
        <_>
          <internalNodes>
            0 -1 219 905737330 1023038718 469570106 1945856971
            -1234113022 -1219345330 106420807 1594954219</internalNodes>
          <leafValues>
            -3.1393736600875854e-01 1.3254120945930481e-01</leafValues></_>
        <_>
          <internalNodes>
            0 -1 642 -1347722008 -286368409 -553910571 -231053043
            -1415582113 -952148097 -1178937353 -1078268483</internalNodes>
          <leafValues>
            -1.8869067728519440e-01 2.0686668157577515e-01</leafValues></_>
        <_>
          <internalNodes>
            0 -1 588 520771832 396038352 352352349 491868608 1319787690
            -1425581960 419592318 404232296</internalNodes>
          <leafValues>
            -2.9705914855003357e-01 1.3526870310306549e-01</leafValues></_>
        <_>
          <internalNodes>
            0 -1 581 -898665228 1173253870 -895485702 1348238030
            264900537 -1055144908 -36883457 -1852850277</internalNodes>
          <leafValues>
            -2.2850464284420013e-01 1.7236551642417908e-01</leafValues></_>
        <_>
          <internalNodes>
            0 -1 730 655376180 -1359196811 -1073808009 -1371841412
            263859516 -1342210049 805002741 1052253564</internalNodes>
          <leafValues>
